digraph Tree {
node [shape=box, style="filled, rounded", color="black", fontname=helvetica] ;
edge [fontname=helvetica] ;
0 [label="X[1] <= 116.8555\ngini = 0.417\nsamples = 54\nvalue = [38, 16]\nclass = Conduire", fillcolor="#e5813994"] ;
1 [label="X[1] <= 83.8044\ngini = 0.4764\nsamples = 23\nvalue = [9, 14]\nclass = DefPlacement", fillcolor="#399de55b"] ;
0 -> 1 [labeldistance=2.5, labelangle=45, headlabel="True"] ;
2 [label="gini = 0.0\nsamples = 3\nvalue = [3, 0]\nclass = Conduire", fillcolor="#e58139ff"] ;
1 -> 2 ;
3 [label="X[3] <= 72.8682\ngini = 0.42\nsamples = 20\nvalue = [6, 14]\nclass = DefPlacement", fillcolor="#399de592"] ;
1 -> 3 ;
4 [label="X[1] <= 112.1619\ngini = 0.48\nsamples = 15\nvalue = [6, 9]\nclass = DefPlacement", fillcolor="#399de555"] ;
3 -> 4 ;
5 [label="X[2] <= 0.5\ngini = 0.426\nsamples = 13\nvalue = [4, 9]\nclass = DefPlacement", fillcolor="#399de58e"] ;
4 -> 5 ;
6 [label="X[0] <= 35.6147\ngini = 0.2188\nsamples = 8\nvalue = [1, 7]\nclass = DefPlacement", fillcolor="#399de5db"] ;
5 -> 6 ;
7 [label="gini = 0.0\nsamples = 6\nvalue = [0, 6]\nclass = DefPlacement", fillcolor="#399de5ff"] ;
6 -> 7 ;
8 [label="gini = 0.5\nsamples = 2\nvalue = [1, 1]\nclass = Conduire", fillcolor="#e5813900"] ;
6 -> 8 ;
9 [label="X[1] <= 99.9341\ngini = 0.48\nsamples = 5\nvalue = [3, 2]\nclass = Conduire", fillcolor="#e5813955"] ;
5 -> 9 ;
10 [label="gini = 0.5\nsamples = 2\nvalue = [1, 1]\nclass = Conduire", fillcolor="#e5813900"] ;
9 -> 10 ;
11 [label="gini = 0.4444\nsamples = 3\nvalue = [2, 1]\nclass = Conduire", fillcolor="#e581397f"] ;
9 -> 11 ;
12 [label="gini = 0.0\nsamples = 2\nvalue = [2, 0]\nclass = Conduire", fillcolor="#e58139ff"] ;
4 -> 12 ;
13 [label="gini = 0.0\nsamples = 5\nvalue = [0, 5]\nclass = DefPlacement", fillcolor="#399de5ff"] ;
3 -> 13 ;
14 [label="X[0] <= 14.6354\ngini = 0.1207\nsamples = 31\nvalue = [29, 2]\nclass = Conduire", fillcolor="#e58139ed"] ;
0 -> 14 [labeldistance=2.5, labelangle=-45, headlabel="False"] ;
15 [label="gini = 0.0\nsamples = 18\nvalue = [18, 0]\nclass = Conduire", fillcolor="#e58139ff"] ;
14 -> 15 ;
16 [label="X[0] <= 16.0999\ngini = 0.2604\nsamples = 13\nvalue = [11, 2]\nclass = Conduire", fillcolor="#e58139d1"] ;
14 -> 16 ;
17 [label="gini = 0.4444\nsamples = 3\nvalue = [1, 2]\nclass = DefPlacement", fillcolor="#399de57f"] ;
16 -> 17 ;
18 [label="gini = 0.0\nsamples = 10\nvalue = [10, 0]\nclass = Conduire", fillcolor="#e58139ff"] ;
16 -> 18 ;
}